// generated file, do not edit, edit make_blur_table.py instead!

namespace vcsmc {

const uint32 kBlurKernelSize = 17;

const float kBlurKernel[] = {
  0.000000909420248f,  // x = -8, y = -8
  0.000003019381557f,  // x = -7, y = -8
  0.000008542485673f,  // x = -6, y = -8
  0.000020595076200f,  // x = -5, y = -8
  0.000042311208521f,  // x = -4, y = -8
  0.000074073069212f,  // x = -3, y = -8
  0.000110504034080f,  // x = -2, y = -8
  0.000140478159432f,  // x = -1, y = -8
  0.000152178173403f,  // x = 0, y = -8
  0.000140478159432f,  // x = 1, y = -8
  0.000110504034080f,  // x = 2, y = -8
  0.000074073069212f,  // x = 3, y = -8
  0.000042311208521f,  // x = 4, y = -8
  0.000020595076200f,  // x = 5, y = -8
  0.000008542485673f,  // x = 6, y = -8
  0.000003019381557f,  // x = 7, y = -8
  0.000000909420248f,  // x = 8, y = -8
  0.000003019381557f,  // x = -8, y = -7
  0.000010024699802f,  // x = -7, y = -7
  0.000028362051244f,  // x = -6, y = -7
  0.000068378061017f,  // x = -5, y = -7
  0.000140478159432f,  // x = -4, y = -7
  0.000245931250610f,  // x = -3, y = -7
  0.000366886313581f,  // x = -2, y = -7
  0.000466403914405f,  // x = -1, y = -7
  0.000505249328787f,  // x = 0, y = -7
  0.000466403914405f,  // x = 1, y = -7
  0.000366886313581f,  // x = 2, y = -7
  0.000245931250610f,  // x = 3, y = -7
  0.000140478159432f,  // x = 4, y = -7
  0.000068378061017f,  // x = 5, y = -7
  0.000028362051244f,  // x = 6, y = -7
  0.000010024699802f,  // x = 7, y = -7
  0.000003019381557f,  // x = 8, y = -7
  0.000008542485673f,  // x = -8, y = -6
  0.000028362051244f,  // x = -7, y = -6
  0.000080242397940f,  // x = -6, y = -6
  0.000193456373636f,  // x = -5, y = -6
  0.000397443198809f,  // x = -4, y = -6
  0.000695792878585f,  // x = -3, y = -6
  0.001038001000716f,  // x = -2, y = -6
  0.001319557890193f,  // x = -1, y = -6
  0.001429459997495f,  // x = 0, y = -6
  0.001319557890193f,  // x = 1, y = -6
  0.001038001000716f,  // x = 2, y = -6
  0.000695792878585f,  // x = 3, y = -6
  0.000397443198809f,  // x = 4, y = -6
  0.000193456373636f,  // x = 5, y = -6
  0.000080242397940f,  // x = 6, y = -6
  0.000028362051244f,  // x = 7, y = -6
  0.000008542485673f,  // x = 8, y = -6
  0.000020595076200f,  // x = -8, y = -5
  0.000068378061017f,  // x = -7, y = -5
  0.000193456373636f,  // x = -6, y = -5
  0.000466403914405f,  // x = -5, y = -5
  0.000958195691327f,  // x = -4, y = -5
  0.001677486846708f,  // x = -3, y = -5
  0.002502516307888f,  // x = -2, y = -5
  0.003181321730068f,  // x = -1, y = -5
  0.003446284688296f,  // x = 0, y = -5
  0.003181321730068f,  // x = 1, y = -5
  0.002502516307888f,  // x = 2, y = -5
  0.001677486846708f,  // x = 3, y = -5
  0.000958195691327f,  // x = 4, y = -5
  0.000466403914405f,  // x = 5, y = -5
  0.000193456373636f,  // x = 6, y = -5
  0.000068378061017f,  // x = 7, y = -5
  0.000020595076200f,  // x = 8, y = -5
  0.000042311208521f,  // x = -8, y = -4
  0.000140478159432f,  // x = -7, y = -4
  0.000397443198809f,  // x = -6, y = -4
  0.000958195691327f,  // x = -5, y = -4
  0.001968549050558f,  // x = -4, y = -4
  0.003446284688296f,  // x = -3, y = -4
  0.005141252613103f,  // x = -2, y = -4
  0.006535813015994f,  // x = -1, y = -4
  0.007080161716968f,  // x = 0, y = -4
  0.006535813015994f,  // x = 1, y = -4
  0.005141252613103f,  // x = 2, y = -4
  0.003446284688296f,  // x = 3, y = -4
  0.001968549050558f,  // x = 4, y = -4
  0.000958195691327f,  // x = 5, y = -4
  0.000397443198809f,  // x = 6, y = -4
  0.000140478159432f,  // x = 7, y = -4
  0.000042311208521f,  // x = 8, y = -4
  0.000074073069212f,  // x = -8, y = -3
  0.000245931250610f,  // x = -7, y = -3
  0.000695792878585f,  // x = -6, y = -3
  0.001677486846708f,  // x = -5, y = -3
  0.003446284688296f,  // x = -4, y = -3
  0.006033315831991f,  // x = -3, y = -3
  0.009000649566834f,  // x = -2, y = -3
  0.011442068114179f,  // x = -1, y = -3
  0.012395044415546f,  // x = 0, y = -3
  0.011442068114179f,  // x = 1, y = -3
  0.009000649566834f,  // x = 2, y = -3
  0.006033315831991f,  // x = 3, y = -3
  0.003446284688296f,  // x = 4, y = -3
  0.001677486846708f,  // x = 5, y = -3
  0.000695792878585f,  // x = 6, y = -3
  0.000245931250610f,  // x = 7, y = -3
  0.000074073069212f,  // x = 8, y = -3
  0.000110504034080f,  // x = -8, y = -2
  0.000366886313581f,  // x = -7, y = -2
  0.001038001000716f,  // x = -6, y = -2
  0.002502516307888f,  // x = -5, y = -2
  0.005141252613103f,  // x = -4, y = -2
  0.009000649566834f,  // x = -3, y = -2
  0.013427391318617f,  // x = -2, y = -2
  0.017069559804825f,  // x = -1, y = -2
  0.018491233387472f,  // x = 0, y = -2
  0.017069559804825f,  // x = 1, y = -2
  0.013427391318617f,  // x = 2, y = -2
  0.009000649566834f,  // x = 3, y = -2
  0.005141252613103f,  // x = 4, y = -2
  0.002502516307888f,  // x = 5, y = -2
  0.001038001000716f,  // x = 6, y = -2
  0.000366886313581f,  // x = 7, y = -2
  0.000110504034080f,  // x = 8, y = -2
  0.000140478159432f,  // x = -8, y = -1
  0.000466403914405f,  // x = -7, y = -1
  0.001319557890193f,  // x = -6, y = -1
  0.003181321730068f,  // x = -5, y = -1
  0.006535813015994f,  // x = -4, y = -1
  0.011442068114179f,  // x = -3, y = -1
  0.017069559804825f,  // x = -2, y = -1
  0.021699663398245f,  // x = -1, y = -1
  0.023506964732218f,  // x = 0, y = -1
  0.021699663398245f,  // x = 1, y = -1
  0.017069559804825f,  // x = 2, y = -1
  0.011442068114179f,  // x = 3, y = -1
  0.006535813015994f,  // x = 4, y = -1
  0.003181321730068f,  // x = 5, y = -1
  0.001319557890193f,  // x = 6, y = -1
  0.000466403914405f,  // x = 7, y = -1
  0.000140478159432f,  // x = 8, y = -1
  0.000152178173403f,  // x = -8, y = 0
  0.000505249328787f,  // x = -7, y = 0
  0.001429459997495f,  // x = -6, y = 0
  0.003446284688296f,  // x = -5, y = 0
  0.007080161716968f,  // x = -4, y = 0
  0.012395044415546f,  // x = -3, y = 0
  0.018491233387472f,  // x = -2, y = 0
  0.023506964732218f,  // x = -1, y = 0
  0.025464790894703f,  // x = 0, y = 0
  0.023506964732218f,  // x = 1, y = 0
  0.018491233387472f,  // x = 2, y = 0
  0.012395044415546f,  // x = 3, y = 0
  0.007080161716968f,  // x = 4, y = 0
  0.003446284688296f,  // x = 5, y = 0
  0.001429459997495f,  // x = 6, y = 0
  0.000505249328787f,  // x = 7, y = 0
  0.000152178173403f,  // x = 8, y = 0
  0.000140478159432f,  // x = -8, y = 1
  0.000466403914405f,  // x = -7, y = 1
  0.001319557890193f,  // x = -6, y = 1
  0.003181321730068f,  // x = -5, y = 1
  0.006535813015994f,  // x = -4, y = 1
  0.011442068114179f,  // x = -3, y = 1
  0.017069559804825f,  // x = -2, y = 1
  0.021699663398245f,  // x = -1, y = 1
  0.023506964732218f,  // x = 0, y = 1
  0.021699663398245f,  // x = 1, y = 1
  0.017069559804825f,  // x = 2, y = 1
  0.011442068114179f,  // x = 3, y = 1
  0.006535813015994f,  // x = 4, y = 1
  0.003181321730068f,  // x = 5, y = 1
  0.001319557890193f,  // x = 6, y = 1
  0.000466403914405f,  // x = 7, y = 1
  0.000140478159432f,  // x = 8, y = 1
  0.000110504034080f,  // x = -8, y = 2
  0.000366886313581f,  // x = -7, y = 2
  0.001038001000716f,  // x = -6, y = 2
  0.002502516307888f,  // x = -5, y = 2
  0.005141252613103f,  // x = -4, y = 2
  0.009000649566834f,  // x = -3, y = 2
  0.013427391318617f,  // x = -2, y = 2
  0.017069559804825f,  // x = -1, y = 2
  0.018491233387472f,  // x = 0, y = 2
  0.017069559804825f,  // x = 1, y = 2
  0.013427391318617f,  // x = 2, y = 2
  0.009000649566834f,  // x = 3, y = 2
  0.005141252613103f,  // x = 4, y = 2
  0.002502516307888f,  // x = 5, y = 2
  0.001038001000716f,  // x = 6, y = 2
  0.000366886313581f,  // x = 7, y = 2
  0.000110504034080f,  // x = 8, y = 2
  0.000074073069212f,  // x = -8, y = 3
  0.000245931250610f,  // x = -7, y = 3
  0.000695792878585f,  // x = -6, y = 3
  0.001677486846708f,  // x = -5, y = 3
  0.003446284688296f,  // x = -4, y = 3
  0.006033315831991f,  // x = -3, y = 3
  0.009000649566834f,  // x = -2, y = 3
  0.011442068114179f,  // x = -1, y = 3
  0.012395044415546f,  // x = 0, y = 3
  0.011442068114179f,  // x = 1, y = 3
  0.009000649566834f,  // x = 2, y = 3
  0.006033315831991f,  // x = 3, y = 3
  0.003446284688296f,  // x = 4, y = 3
  0.001677486846708f,  // x = 5, y = 3
  0.000695792878585f,  // x = 6, y = 3
  0.000245931250610f,  // x = 7, y = 3
  0.000074073069212f,  // x = 8, y = 3
  0.000042311208521f,  // x = -8, y = 4
  0.000140478159432f,  // x = -7, y = 4
  0.000397443198809f,  // x = -6, y = 4
  0.000958195691327f,  // x = -5, y = 4
  0.001968549050558f,  // x = -4, y = 4
  0.003446284688296f,  // x = -3, y = 4
  0.005141252613103f,  // x = -2, y = 4
  0.006535813015994f,  // x = -1, y = 4
  0.007080161716968f,  // x = 0, y = 4
  0.006535813015994f,  // x = 1, y = 4
  0.005141252613103f,  // x = 2, y = 4
  0.003446284688296f,  // x = 3, y = 4
  0.001968549050558f,  // x = 4, y = 4
  0.000958195691327f,  // x = 5, y = 4
  0.000397443198809f,  // x = 6, y = 4
  0.000140478159432f,  // x = 7, y = 4
  0.000042311208521f,  // x = 8, y = 4
  0.000020595076200f,  // x = -8, y = 5
  0.000068378061017f,  // x = -7, y = 5
  0.000193456373636f,  // x = -6, y = 5
  0.000466403914405f,  // x = -5, y = 5
  0.000958195691327f,  // x = -4, y = 5
  0.001677486846708f,  // x = -3, y = 5
  0.002502516307888f,  // x = -2, y = 5
  0.003181321730068f,  // x = -1, y = 5
  0.003446284688296f,  // x = 0, y = 5
  0.003181321730068f,  // x = 1, y = 5
  0.002502516307888f,  // x = 2, y = 5
  0.001677486846708f,  // x = 3, y = 5
  0.000958195691327f,  // x = 4, y = 5
  0.000466403914405f,  // x = 5, y = 5
  0.000193456373636f,  // x = 6, y = 5
  0.000068378061017f,  // x = 7, y = 5
  0.000020595076200f,  // x = 8, y = 5
  0.000008542485673f,  // x = -8, y = 6
  0.000028362051244f,  // x = -7, y = 6
  0.000080242397940f,  // x = -6, y = 6
  0.000193456373636f,  // x = -5, y = 6
  0.000397443198809f,  // x = -4, y = 6
  0.000695792878585f,  // x = -3, y = 6
  0.001038001000716f,  // x = -2, y = 6
  0.001319557890193f,  // x = -1, y = 6
  0.001429459997495f,  // x = 0, y = 6
  0.001319557890193f,  // x = 1, y = 6
  0.001038001000716f,  // x = 2, y = 6
  0.000695792878585f,  // x = 3, y = 6
  0.000397443198809f,  // x = 4, y = 6
  0.000193456373636f,  // x = 5, y = 6
  0.000080242397940f,  // x = 6, y = 6
  0.000028362051244f,  // x = 7, y = 6
  0.000008542485673f,  // x = 8, y = 6
  0.000003019381557f,  // x = -8, y = 7
  0.000010024699802f,  // x = -7, y = 7
  0.000028362051244f,  // x = -6, y = 7
  0.000068378061017f,  // x = -5, y = 7
  0.000140478159432f,  // x = -4, y = 7
  0.000245931250610f,  // x = -3, y = 7
  0.000366886313581f,  // x = -2, y = 7
  0.000466403914405f,  // x = -1, y = 7
  0.000505249328787f,  // x = 0, y = 7
  0.000466403914405f,  // x = 1, y = 7
  0.000366886313581f,  // x = 2, y = 7
  0.000245931250610f,  // x = 3, y = 7
  0.000140478159432f,  // x = 4, y = 7
  0.000068378061017f,  // x = 5, y = 7
  0.000028362051244f,  // x = 6, y = 7
  0.000010024699802f,  // x = 7, y = 7
  0.000003019381557f,  // x = 8, y = 7
  0.000000909420248f,  // x = -8, y = 8
  0.000003019381557f,  // x = -7, y = 8
  0.000008542485673f,  // x = -6, y = 8
  0.000020595076200f,  // x = -5, y = 8
  0.000042311208521f,  // x = -4, y = 8
  0.000074073069212f,  // x = -3, y = 8
  0.000110504034080f,  // x = -2, y = 8
  0.000140478159432f,  // x = -1, y = 8
  0.000152178173403f,  // x = 0, y = 8
  0.000140478159432f,  // x = 1, y = 8
  0.000110504034080f,  // x = 2, y = 8
  0.000074073069212f,  // x = 3, y = 8
  0.000042311208521f,  // x = 4, y = 8
  0.000020595076200f,  // x = 5, y = 8
  0.000008542485673f,  // x = 6, y = 8
  0.000003019381557f,  // x = 7, y = 8
  0.000000909420248f,  // x = 8, y = 8
};

}  // namespace vcsmc
